{
  "levels": [
    {
      "inputs": [
        0.5838056761762406,
        0.7159959522864576,
        0.7332392714567859,
        0.6961611651672994,
        0.35961839212307534
      ],
      "outputs": [
        0,
        1,
        0,
        0,
        1,
        0
      ],
      "biases": [
        -0.49230270084778516,
        0.42196654942443024,
        0.8897817201027891,
        0.33331487821325645,
        0.7402960113703516,
        -0.3728885313721464
      ],
      "weights": [
        [
          0.9654994046417329,
          -0.26594746688647186,
          -0.489038252244653,
          -0.662119098306007,
          0.48267193843132583,
          -0.4096350992084701
        ],
        [
          -0.6266348719829495,
          0.03166124256026004,
          -0.11226609870934112,
          0.26183899136845046,
          0.8935582956865655,
          0.3194267703265554
        ],
        [
          -0.42898271643999,
          0.7454929934820207,
          0.8508700081813121,
          -0.7409975355113643,
          0.3790878032237508,
          -0.6413899098782374
        ],
        [
          -0.7447415014644854,
          0.8488144594569662,
          0.6568160281579862,
          -0.09597509074789867,
          0.27573609811445543,
          0.0204804710927875
        ],
        [
          0.5965289897843564,
          0.17444535397242467,
          -0.12155695771876518,
          0.052840561518254336,
          0.20680771469595793,
          -0.917578676515173
        ]
      ]
    },
    {
      "inputs": [
        0,
        1,
        0,
        0,
        1,
        0
      ],
      "outputs": [
        1,
        0,
        0,
        0
      ],
      "biases": [
        -0.7290124665495457,
        0.09362279201139367,
        0.44635893447574615,
        0.5909583507928238
      ],
      "weights": [
        [
          0.9455844085299954,
          0.880783641652791,
          -0.1811479615087639,
          -0.516380871141009
        ],
        [
          -0.0019743046414748555,
          -0.6986586108903499,
          -0.32929157004039533,
          0.5516726279986419
        ],
        [
          0.08147551972593892,
          -0.22572322197320682,
          0.058786972369177626,
          0.6943555441576246
        ],
        [
          0.5176748308802543,
          0.023860120848824273,
          0.5611997904332995,
          -0.8257362073387533
        ],
        [
          0.35141622775881265,
          -0.963328661380582,
          0.20663981346993054,
          -0.3925829348260952
        ],
        [
          0.9145371419047486,
          -0.4865044898069084,
          0.7577870677151561,
          0.7041712956526323
        ]
      ]
    }
  ]
}