{
  "levels": [
    {
      "inputs": [
        0,
        0,
        0,
        0.3693216192093689,
        0.6692389999555521
      ],
      "outputs": [
        1,
        1,
        0,
        0,
        0,
        1
      ],
      "biases": [
        -0.37290227013088906,
        -0.6550962364606787,
        -0.32002918749265485,
        0.7546368843818563,
        0.0758197724250762,
        -0.3461698604043561
      ],
      "weights": [
        [
          -0.38532240470176593,
          0.7233196332008522,
          -0.7265388933418577,
          -0.8366877986774144,
          0.9393884715033021,
          0.570729127971499
        ],
        [
          0.700524023028571,
          0.7154569159844351,
          0.6993160418767809,
          0.4558139297930628,
          0.10379028670885548,
          -0.042961603406969265
        ],
        [
          -0.1093814397571905,
          -0.05378403977802049,
          0.6722563164784253,
          0.7218369799259985,
          0.7508349486535204,
          0.6564644726316504
        ],
        [
          -0.7921064087448375,
          0.04046242833838681,
          -0.756509115461944,
          -0.11179557920089425,
          0.6667724298646132,
          0.2892682549073864
        ],
        [
          0.7995656330865482,
          0.17008409225523358,
          -0.8183077094151864,
          0.2232715133695916,
          -0.31805394339468473,
          0.5528535642816613
        ]
      ]
    },
    {
      "inputs": [
        1,
        1,
        0,
        0,
        0,
        1
      ],
      "outputs": [
        1,
        1,
        1,
        0
      ],
      "biases": [
        -0.5411963097164256,
        -0.46186447159320587,
        0.30574378307393346,
        0.1907661989339554
      ],
      "weights": [
        [
          0.5140518237125752,
          0.5401184097785359,
          -0.7761230520303737,
          0.7786935548634677
        ],
        [
          0.3835225059473454,
          -0.42845667793847686,
          0.5844691329511458,
          -0.44415171523514096
        ],
        [
          -0.08794261089004037,
          0.6305326465367527,
          0.24981435762471238,
          -0.147388037990693
        ],
        [
          -0.9199560822914747,
          0.4990041368938636,
          -0.6582098942097263,
          -0.31708596436689895
        ],
        [
          -0.6246550853764394,
          0.09573085528449121,
          -0.8079743305934757,
          0.7356696521947375
        ],
        [
          0.2694100926016936,
          0.7027070838851557,
          0.6264522823975337,
          -0.8648179789904045
        ]
      ]
    }
  ]
}